<?xml version="1.0"?>
<opencv_storage>
<cascade>
  <stageType>BOOST</stageType>
  <featureType>HAAR</featureType>
  <height>24</height>
  <width>24</width>
  <stageParams>
    <boostType>GAB</boostType>
    <minHitRate>9.9500000476837158e-01</minHitRate>
    <maxFalseAlarm>5.0000000000000000e-01</maxFalseAlarm>
    <weightTrimRate>9.4999998807907104e-01</weightTrimRate>
    <maxDepth>1</maxDepth>
    <maxWeakCount>100</maxWeakCount></stageParams>
  <featureParams>
    <maxCatCount>0</maxCatCount>
    <featSize>1</featSize>
    <mode>BASIC</mode></featureParams>
  <stageNum>17</stageNum>
  <stages>
    <!-- stage 0 -->
    <_>
      <maxWeakCount>3</maxWeakCount>
      <stageThreshold>-1.3235089778900146e+00</stageThreshold>
      <weakClassifiers>
        <_>
          <internalNodes>
            0 -1 38 -1.0046476498246193e-02</internalNodes>
          <leafValues>
            8.6000001430511475e-01 -8.9863014221191406e-01</leafValues></_>
        <_>
          <internalNodes>
            0 -1 12 -7.5722751207649708e-03</internalNodes>
          <leafValues>
            5.3530603647232056e-01 -9.0443682670593262e-01</leafValues></_>
        <_>
          <internalNodes>
            0 -1 13 -1.0390080511569977e-02</internalNodes>
          <leafValues>
            5.0249940156936646e-01 -9.6018481254577637e-01</leafValues></_></weakClassifiers></_>
    <!-- stage 1 -->
    <_>
      <maxWeakCount>3</maxWeakCount>
      <stageThreshold>-1.1637018918991089e+00</stageThreshold>
      <weakClassifiers>
        <_>
          <internalNodes>
            0 -1 26 7.7802585437893867e-03</internalNodes>
          <leafValues>
            -8.9285713434219360e-01 7.8431373834609985e-01</leafValues></_>
        <_>
          <internalNodes>
            0 -1 54 -3.9965901523828506e-03</internalNodes>
          <leafValues>
            6.9585496187210083e-01 -8.3131927251815796e-01</leafValues></_>
        <_>
          <internalNodes>
            0 -1 45 -2.8530813287943602e-03</internalNodes>
          <leafValues>
            5.6047457456588745e-01 -9.0315890312194824e-01</leafValues></_></weakClassifiers></_>
    <!-- stage 2 -->
    <_>
      <maxWeakCount>3</maxWeakCount>
      <stageThreshold>-1.3982124328613281e+00</stageThreshold>
      <weakClassifiers>
        <_>
          <internalNodes>
            0 -1 11 -2.8357252478599548e-02</internalNodes>
          <leafValues>
            6.3333332538604736e-01 -9.0985918045043945e-01</leafValues></_>
        <_>
          <internalNodes>
            0 -1 39 -4.6619065105915070e-03</internalNodes>
          <leafValues>
            6.3553941249847412e-01 -8.2853907346725464e-01</leafValues></_>
        <_>
          <internalNodes>
            0 -1 9 -1.0002836585044861e-02</internalNodes>
          <leafValues>
            3.4018573164939880e-01 -1.</leafValues></_></weakClassifiers></_>
    <!-- stage 3 -->
    <_>
      <maxWeakCount>3</maxWeakCount>
      <stageThreshold>-1.1663739681243896e+00</stageThreshold>
      <weakClassifiers>
        <_>
          <internalNodes>
            0 -1 17 -1.0862728580832481e-02</internalNodes>
          <leafValues>
            7.6344084739685059e-01 -8.6974221467971802e-01</leafValues></_>
        <_>
          <internalNodes>
            0 -1 46 1.2291420996189117e-01</internalNodes>
          <leafValues>
            -7.4676179885864258e-01 8.9037066698074341e-01</leafValues></_>
        <_>
          <internalNodes>
            0 -1 8 -6.5124877728521824e-03</internalNodes>
          <leafValues>
            4.5013004541397095e-01 -9.6545708179473877e-01</leafValues></_></weakClassifiers></_>
    <!-- stage 4 -->
    <_>
      <maxWeakCount>4</maxWeakCount>
      <stageThreshold>-8.8987690210342407e-01</stageThreshold>
      <weakClassifiers>
        <_>
          <internalNodes>
            0 -1 50 2.6482224464416504e-02</internalNodes>
          <leafValues>
            -8.7904357910156250e-01 4.6218487620353699e-01</leafValues></_>
        <_>
          <internalNodes>
            0 -1 33 5.2505610510706902e-03</internalNodes>
          <leafValues>
            -9.4464933872222900e-01 2.6211202144622803e-01</leafValues></_>
        <_>
          <internalNodes>
            0 -1 49 -3.3048479817807674e-03</internalNodes>
          <leafValues>
            3.0455198884010315e-01 -9.4458562135696411e-01</leafValues></_>
        <_>
          <internalNodes>
            0 -1 5 -7.6580168679356575e-03</internalNodes>
          <leafValues>
            7.6321691274642944e-01 -5.7749730348587036e-01</leafValues></_></weakClassifiers></_>
    <!-- stage 5 -->
    <_>
      <maxWeakCount>4</maxWeakCount>
      <stageThreshold>-1.9656006097793579e+00</stageThreshold>
      <weakClassifiers>
        <_>
          <internalNodes>
            0 -1 48 9.3292277306318283e-03</internalNodes>
          <leafValues>
            -8.3399212360382080e-01 8.8732391595840454e-01</leafValues></_>
        <_>
          <internalNodes>
            0 -1 55 5.1848851144313812e-02</internalNodes>
          <leafValues>
            -6.8479943275451660e-01 7.6459228992462158e-01</leafValues></_>
        <_>
          <internalNodes>
            0 -1 6 -3.4050256013870239e-02</internalNodes>
          <leafValues>
            4.8241972923278809e-01 -7.9017019271850586e-01</leafValues></_>
        <_>
          <internalNodes>
            0 -1 43 -2.5048297829926014e-03</internalNodes>
          <leafValues>
            -1. 3.4336104989051819e-01</leafValues></_></weakClassifiers></_>
    <!-- stage 6 -->
    <_>
      <maxWeakCount>3</maxWeakCount>
      <stageThreshold>-1.2972366809844971e+00</stageThreshold>
      <weakClassifiers>
        <_>
          <internalNodes>
            0 -1 15 -3.8458675146102905e-02</internalNodes>
          <leafValues>
            2.6865673065185547e-01 -8.7068963050842285e-01</leafValues></_>
        <_>
          <internalNodes>
            0 -1 32 -2.0617209374904633e-02</internalNodes>
          <leafValues>
            3.5525009036064148e-01 -8.3808529376983643e-01</leafValues></_>
        <_>
          <internalNodes>
            0 -1 47 -8.1184003502130508e-03</internalNodes>
          <leafValues>
            5.3023880720138550e-01 -7.2780811786651611e-01</leafValues></_></weakClassifiers></_>
    <!-- stage 7 -->
    <_>
      <maxWeakCount>4</maxWeakCount>
      <stageThreshold>-7.8267300128936768e-01</stageThreshold>
      <weakClassifiers>
        <_>
          <internalNodes>
            0 -1 52 -1.2283371761441231e-02</internalNodes>
          <leafValues>
            6.8292683362960815e-01 -8.3689838647842407e-01</leafValues></_>
        <_>
          <internalNodes>
            0 -1 0 -4.0487688779830933e-01</internalNodes>
          <leafValues>
            6.6363435983657837e-01 -6.3443452119827271e-01</leafValues></_>
        <_>
          <internalNodes>
            0 -1 22 -5.5368761532008648e-03</internalNodes>
          <leafValues>
            3.5119453072547913e-01 -9.7954076528549194e-01</leafValues></_>
        <_>
          <internalNodes>
            0 -1 18 2.2271424531936646e-03</internalNodes>
          <leafValues>
            -9.0854853391647339e-01 3.7013182044029236e-01</leafValues></_></weakClassifiers></_>
    <!-- stage 8 -->
    <_>
      <maxWeakCount>5</maxWeakCount>
      <stageThreshold>-1.3717269897460938e+00</stageThreshold>
      <weakClassifiers>
        <_>
          <internalNodes>
            0 -1 42 1.1902256868779659e-02</internalNodes>
          <leafValues>
            -8.2180851697921753e-01 6.1538463830947876e-01</leafValues></_>
        <_>
          <internalNodes>
            0 -1 56 -2.4894779548048973e-02</internalNodes>
          <leafValues>
            5.6313282251358032e-01 -6.2040942907333374e-01</leafValues></_>
        <_>
          <internalNodes>
            0 -1 31 -1.0018580360338092e-03</internalNodes>
          <leafValues>
            -9.3484634160995483e-01 3.5515755414962769e-01</leafValues></_>
        <_>
          <internalNodes>
            0 -1 36 9.1589655494317412e-04</internalNodes>
          <leafValues>
            2.7891567349433899e-01 -9.7736167907714844e-01</leafValues></_>
        <_>
          <internalNodes>
            0 -1 40 -1.1485568247735500e-02</internalNodes>
          <leafValues>
            7.2642159461975098e-01 -4.9999296665191650e-01</leafValues></_></weakClassifiers></_>
    <!-- stage 9 -->
    <_>
      <maxWeakCount>5</maxWeakCount>
      <stageThreshold>-1.8269910812377930e+00</stageThreshold>
      <weakClassifiers>
        <_>
          <internalNodes>
            0 -1 10 -1.2532157823443413e-02</internalNodes>
          <leafValues>
            6.3380283117294312e-01 -8.1027668714523315e-01</leafValues></_>
        <_>
          <internalNodes>
            0 -1 53 -2.9941115528345108e-02</internalNodes>
          <leafValues>
            4.0625682473182678e-01 -7.2717016935348511e-01</leafValues></_>
        <_>
          <internalNodes>
            0 -1 27 2.4000443518161774e-03</internalNodes>
          <leafValues>
            3.2163247466087341e-01 -9.1042757034301758e-01</leafValues></_>
        <_>
          <internalNodes>
            0 -1 29 2.1138224750757217e-02</internalNodes>
          <leafValues>
            3.0524969100952148e-01 -9.4482702016830444e-01</leafValues></_>
        <_>
          <internalNodes>
            0 -1 37 4.7291666269302368e-03</internalNodes>
          <leafValues>
            -9.6024304628372192e-01 3.1563362479209900e-01</leafValues></_></weakClassifiers></_>
    <!-- stage 10 -->
    <_>
      <maxWeakCount>2</maxWeakCount>
      <stageThreshold>-6.5555030107498169e-01</stageThreshold>
      <weakClassifiers>
        <_>
          <internalNodes>
            0 -1 4 -1.2322379276156425e-02</internalNodes>
          <leafValues>
            5.3424656391143799e-01 -8.0449140071868896e-01</leafValues></_>
        <_>
          <internalNodes>
            0 -1 14 -5.2495170384645462e-03</internalNodes>
          <leafValues>
            -9.9378752708435059e-01 1.4894112944602966e-01</leafValues></_></weakClassifiers></_>
    <!-- stage 11 -->
    <_>
      <maxWeakCount>5</maxWeakCount>
      <stageThreshold>-1.4930599927902222e+00</stageThreshold>
      <weakClassifiers>
        <_>
          <internalNodes>
            0 -1 23 1.6482844948768616e-02</internalNodes>
          <leafValues>
            -8.2085561752319336e-01 5.3658539056777954e-01</leafValues></_>
        <_>
          <internalNodes>
            0 -1 2 3.6203812807798386e-02</internalNodes>
          <leafValues>
            -6.2083333730697632e-01 6.0545152425765991e-01</leafValues></_>
        <_>
          <internalNodes>
            0 -1 30 9.2103111092001200e-04</internalNodes>
          <leafValues>
            3.7595275044441223e-01 -8.8511097431182861e-01</leafValues></_>
        <_>
          <internalNodes>
            0 -1 20 -6.2025338411331177e-04</internalNodes>
          <leafValues>
            2.9565581679344177e-01 -1.</leafValues></_>
        <_>
          <internalNodes>
            0 -1 35 -4.2397589422762394e-03</internalNodes>
          <leafValues>
            5.3808414936065674e-01 -5.6312781572341919e-01</leafValues></_></weakClassifiers></_>
    <!-- stage 12 -->
    <_>
      <maxWeakCount>2</maxWeakCount>
      <stageThreshold>-6.6813701391220093e-01</stageThreshold>
      <weakClassifiers>
        <_>
          <internalNodes>
            0 -1 44 -9.5966290682554245e-03</internalNodes>
          <leafValues>
            6.0563379526138306e-01 -8.0764162540435791e-01</leafValues></_>
        <_>
          <internalNodes>
            0 -1 7 5.6567699648439884e-03</internalNodes>
          <leafValues>
            1.3950464129447937e-01 -9.9411261081695557e-01</leafValues></_></weakClassifiers></_>
    <!-- stage 13 -->
    <_>
      <maxWeakCount>2</maxWeakCount>
      <stageThreshold>-6.2839818000793457e-01</stageThreshold>
      <weakClassifiers>
        <_>
          <internalNodes>
            0 -1 28 1.8388926982879639e-02</internalNodes>
          <leafValues>
            -8.0474936962127686e-01 5.5555558204650879e-01</leafValues></_>
        <_>
          <internalNodes>
            0 -1 16 -8.7789893150329590e-03</internalNodes>
          <leafValues>
            -9.9415701627731323e-01 1.7635117471218109e-01</leafValues></_></weakClassifiers></_>
    <!-- stage 14 -->
    <_>
      <maxWeakCount>3</maxWeakCount>
      <stageThreshold>-1.2844552993774414e+00</stageThreshold>
      <weakClassifiers>
        <_>
          <internalNodes>
            0 -1 1 -4.2741481214761734e-02</internalNodes>
          <leafValues>
            6.2711864709854126e-01 -7.8728926181793213e-01</leafValues></_>
        <_>
          <internalNodes>
            0 -1 34 -4.4123046100139618e-03</internalNodes>
          <leafValues>
            2.6964291930198669e-01 -8.4828311204910278e-01</leafValues></_>
        <_>
          <internalNodes>
            0 -1 25 -1.3917346950620413e-03</internalNodes>
          <leafValues>
            -9.8340165615081787e-01 3.5111710429191589e-01</leafValues></_></weakClassifiers></_>
    <!-- stage 15 -->
    <_>
      <maxWeakCount>4</maxWeakCount>
      <stageThreshold>-1.8970606327056885e+00</stageThreshold>
      <weakClassifiers>
        <_>
          <internalNodes>
            0 -1 19 -9.3549042940139771e-03</internalNodes>
          <leafValues>
            4.8936170339584351e-01 -8.3695650100708008e-01</leafValues></_>
        <_>
          <internalNodes>
            0 -1 21 3.5706264898180962e-03</internalNodes>
          <leafValues>
            -8.7424927949905396e-01 3.4751722216606140e-01</leafValues></_>
        <_>
          <internalNodes>
            0 -1 51 -4.1601150296628475e-03</internalNodes>
          <leafValues>
            7.2151124477386475e-01 -6.1447978019714355e-01</leafValues></_>
        <_>
          <internalNodes>
            0 -1 3 -7.6803890988230705e-04</internalNodes>
          <leafValues>
            -1. 4.2862495779991150e-01</leafValues></_></weakClassifiers></_>
    <!-- stage 16 -->
    <_>
      <maxWeakCount>3</maxWeakCount>
      <stageThreshold>-1.2379682064056396e+00</stageThreshold>
      <weakClassifiers>
        <_>
          <internalNodes>
            0 -1 57 6.1158556491136551e-03</internalNodes>
          <leafValues>
            -8.5922974348068237e-01 1.</leafValues></_>
        <_>
          <internalNodes>
            0 -1 24 -5.4529886692762375e-03</internalNodes>
          <leafValues>
            5.3192436695098877e-01 -8.5212641954421997e-01</leafValues></_>
        <_>
          <internalNodes>
            0 -1 41 1.1974717490375042e-03</internalNodes>
          <leafValues>
            4.7338795661926270e-01 -9.9676322937011719e-01</leafValues></_></weakClassifiers></_></stages>
  <features>
    <_>
      <rects>
        <_>
          0 3 24 19 -1.</_>
        <_>
          8 3 8 19 3.</_></rects>
      <tilted>0</tilted></_>
    <_>
      <rects>
        <_>
          0 7 4 12 -1.</_>
        <_>
          2 7 2 12 2.</_></rects>
      <tilted>0</tilted></_>
    <_>
      <rects>
        <_>
          0 14 8 10 -1.</_>
        <_>
          0 14 4 5 2.</_>
        <_>
          4 19 4 5 2.</_></rects>
      <tilted>0</tilted></_>
    <_>
      <rects>
        <_>
          0 20 2 4 -1.</_>
        <_>
          1 20 1 4 2.</_></rects>
      <tilted>0</tilted></_>
    <_>
      <rects>
        <_>
          1 9 2 7 -1.</_>
        <_>
          2 9 1 7 2.</_></rects>
      <tilted>0</tilted></_>
    <_>
      <rects>
        <_>
          1 11 6 4 -1.</_>
        <_>
          3 11 2 4 3.</_></rects>
      <tilted>0</tilted></_>
    <_>
      <rects>
        <_>
          2 14 13 9 -1.</_>
        <_>
          2 17 13 3 3.</_></rects>
      <tilted>0</tilted></_>
    <_>
      <rects>
        <_>
          3 4 12 9 -1.</_>
        <_>
          9 4 6 9 2.</_></rects>
      <tilted>0</tilted></_>
    <_>
      <rects>
        <_>
          3 6 6 9 -1.</_>
        <_>
          6 6 3 9 2.</_></rects>
      <tilted>0</tilted></_>
    <_>
      <rects>
        <_>
          3 12 12 7 -1.</_>
        <_>
          7 12 4 7 3.</_></rects>
      <tilted>0</tilted></_>
    <_>
      <rects>
        <_>
          4 2 4 4 -1.</_>
        <_>
          4 2 2 2 2.</_>
        <_>
          6 4 2 2 2.</_></rects>
      <tilted>0</tilted></_>
    <_>
      <rects>
        <_>
          4 4 4 16 -1.</_>
        <_>
          6 4 2 16 2.</_></rects>
      <tilted>0</tilted></_>
    <_>
      <rects>
        <_>
          4 5 6 6 -1.</_>
        <_>
          6 5 2 6 3.</_></rects>
      <tilted>0</tilted></_>
    <_>
      <rects>
        <_>
          5 3 12 6 -1.</_>
        <_>
          5 5 12 2 3.</_></rects>
      <tilted>0</tilted></_>
    <_>
      <rects>
        <_>
          5 6 12 4 -1.</_>
        <_>
          9 6 4 4 3.</_></rects>
      <tilted>0</tilted></_>
    <_>
      <rects>
        <_>
          6 1 14 4 -1.</_>
        <_>
          6 3 14 2 2.</_></rects>
      <tilted>0</tilted></_>
    <_>
      <rects>
        <_>
          6 5 10 7 -1.</_>
        <_>
          11 5 5 7 2.</_></rects>
      <tilted>0</tilted></_>
    <_>
      <rects>
        <_>
          6 8 3 7 -1.</_>
        <_>
          7 8 1 7 3.</_></rects>
      <tilted>0</tilted></_>
    <_>
      <rects>
        <_>
          6 10 14 1 -1.</_>
        <_>
          13 10 7 1 2.</_></rects>
      <tilted>0</tilted></_>
    <_>
      <rects>
        <_>
          6 12 3 5 -1.</_>
        <_>
          7 12 1 5 3.</_></rects>
      <tilted>0</tilted></_>
    <_>
      <rects>
        <_>
          7 3 12 6 -1.</_>
        <_>
          11 3 4 6 3.</_></rects>
      <tilted>0</tilted></_>
    <_>
      <rects>
        <_>
          7 5 6 5 -1.</_>
        <_>
          9 5 2 5 3.</_></rects>
      <tilted>0</tilted></_>
    <_>
      <rects>
        <_>
          7 9 6 10 -1.</_>
        <_>
          7 14 6 5 2.</_></rects>
      <tilted>0</tilted></_>
    <_>
      <rects>
        <_>
          8 0 9 3 -1.</_>
        <_>
          8 1 9 1 3.</_></rects>
      <tilted>0</tilted></_>
    <_>
      <rects>
        <_>
          8 3 9 9 -1.</_>
        <_>
          11 3 3 9 3.</_></rects>
      <tilted>0</tilted></_>
    <_>
      <rects>
        <_>
          8 5 9 1 -1.</_>
        <_>
          11 5 3 1 3.</_></rects>
      <tilted>0</tilted></_>
    <_>
      <rects>
        <_>
          8 8 3 6 -1.</_>
        <_>
          9 8 1 6 3.</_></rects>
      <tilted>0</tilted></_>
    <_>
      <rects>
        <_>
          8 8 6 8 -1.</_>
        <_>
          8 12 6 4 2.</_></rects>
      <tilted>0</tilted></_>
    <_>
      <rects>
        <_>
          8 10 3 5 -1.</_>
        <_>
          9 10 1 5 3.</_></rects>
      <tilted>0</tilted></_>
    <_>
      <rects>
        <_>
          8 10 14 6 -1.</_>
        <_>
          15 10 7 6 2.</_></rects>
      <tilted>0</tilted></_>
    <_>
      <rects>
        <_>
          8 12 6 2 -1.</_>
        <_>
          8 13 6 1 2.</_></rects>
      <tilted>0</tilted></_>
    <_>
      <rects>
        <_>
          8 12 9 2 -1.</_>
        <_>
          8 13 9 1 2.</_></rects>
      <tilted>0</tilted></_>
    <_>
      <rects>
        <_>
          8 14 5 9 -1.</_>
        <_>
          8 17 5 3 3.</_></rects>
      <tilted>0</tilted></_>
    <_>
      <rects>
        <_>
          9 4 2 6 -1.</_>
        <_>
          9 7 2 3 2.</_></rects>
      <tilted>0</tilted></_>
    <_>
      <rects>
        <_>
          9 6 6 5 -1.</_>
        <_>
          11 6 2 5 3.</_></rects>
      <tilted>0</tilted></_>
    <_>
      <rects>
        <_>
          9 12 3 7 -1.</_>
        <_>
          10 12 1 7 3.</_></rects>
      <tilted>0</tilted></_>
    <_>
      <rects>
        <_>
          9 18 6 1 -1.</_>
        <_>
          12 18 3 1 2.</_></rects>
      <tilted>0</tilted></_>
    <_>
      <rects>
        <_>
          10 3 6 18 -1.</_>
        <_>
          13 3 3 18 2.</_></rects>
      <tilted>0</tilted></_>
    <_>
      <rects>
        <_>
          10 7 3 9 -1.</_>
        <_>
          11 7 1 9 3.</_></rects>
      <tilted>0</tilted></_>
    <_>
      <rects>
        <_>
          10 9 3 5 -1.</_>
        <_>
          11 9 1 5 3.</_></rects>
      <tilted>0</tilted></_>
    <_>
      <rects>
        <_>
          10 10 3 6 -1.</_>
        <_>
          11 10 1 6 3.</_></rects>
      <tilted>0</tilted></_>
    <_>
      <rects>
        <_>
          10 10 4 3 -1.</_>
        <_>
          10 11 4 1 3.</_></rects>
      <tilted>0</tilted></_>
    <_>
      <rects>
        <_>
          11 11 3 4 -1.</_>
        <_>
          12 11 1 4 3.</_></rects>
      <tilted>0</tilted></_>
    <_>
      <rects>
        <_>
          12 2 3 18 -1.</_>
        <_>
          12 11 3 9 2.</_></rects>
      <tilted>0</tilted></_>
    <_>
      <rects>
        <_>
          13 10 3 3 -1.</_>
        <_>
          14 10 1 3 3.</_></rects>
      <tilted>0</tilted></_>
    <_>
      <rects>
        <_>
          13 15 2 6 -1.</_>
        <_>
          13 17 2 2 3.</_></rects>
      <tilted>0</tilted></_>
    <_>
      <rects>
        <_>
          14 3 10 18 -1.</_>
        <_>
          19 3 5 18 2.</_></rects>
      <tilted>0</tilted></_>
    <_>
      <rects>
        <_>
          14 5 6 5 -1.</_>
        <_>
          16 5 2 5 3.</_></rects>
      <tilted>0</tilted></_>
    <_>
      <rects>
        <_>
          14 10 3 3 -1.</_>
        <_>
          15 10 1 3 3.</_></rects>
      <tilted>0</tilted></_>
    <_>
      <rects>
        <_>
          14 11 7 6 -1.</_>
        <_>
          14 14 7 3 2.</_></rects>
      <tilted>0</tilted></_>
    <_>
      <rects>
        <_>
          15 0 8 6 -1.</_>
        <_>
          15 0 4 3 2.</_>
        <_>
          19 3 4 3 2.</_></rects>
      <tilted>0</tilted></_>
    <_>
      <rects>
        <_>
          15 3 6 4 -1.</_>
        <_>
          15 3 3 2 2.</_>
        <_>
          18 5 3 2 2.</_></rects>
      <tilted>0</tilted></_>
    <_>
      <rects>
        <_>
          15 10 3 5 -1.</_>
        <_>
          16 10 1 5 3.</_></rects>
      <tilted>0</tilted></_>
    <_>
      <rects>
        <_>
          16 3 6 12 -1.</_>
        <_>
          16 3 3 6 2.</_>
        <_>
          19 9 3 6 2.</_></rects>
      <tilted>0</tilted></_>
    <_>
      <rects>
        <_>
          17 14 6 1 -1.</_>
        <_>
          19 14 2 1 3.</_></rects>
      <tilted>0</tilted></_>
    <_>
      <rects>
        <_>
          18 5 6 14 -1.</_>
        <_>
          21 5 3 14 2.</_></rects>
      <tilted>0</tilted></_>
    <_>
      <rects>
        <_>
          18 10 6 6 -1.</_>
        <_>
          20 10 2 6 3.</_></rects>
      <tilted>0</tilted></_>
    <_>
      <rects>
        <_>
          19 15 4 2 -1.</_>
        <_>
          21 15 2 2 2.</_></rects>
      <tilted>0</tilted></_></features></cascade>
</opencv_storage>
